{
  "sizes": [
    8,
    7,
    2
  ],
  "weights": [
    {
      "rows": 7,
      "cols": 8,
      "data": [
        [
          -0.8511382160529091,
          -0.4437644583825886,
          -0.6026976327317506,
          0.2101199225137811,
          0.3882393603221552,
          -0.2669428476014372,
          -0.057861123380005305
        ],
        [
          0.9981431007345005,
          0.9889694056509306,
          0.0804407271573746,
          0.31697272554748634,
          0.9124541305141762,
          -0.7995580465918386,
          -0.5204567994433112
        ],
        [
          -0.8067839801896615,
          -0.8544267716340759,
          0.4978491970117007,
          0.31134599541646196,
          0.06963593745107294,
          -0.8555664926757247,
          -0.8431988305337774
        ],
        [
          -0.9271182043565505,
          0.9986251335544156,
          0.014119048320913041,
          -0.5550549344602049,
          -0.4597146997510233,
          -0.38648716340501954,
          0.30670863441503915
        ],
        [
          -0.19873644927337847,
          0.08003624021734373,
          -0.3425858926770394,
          -0.035619308062970756,
          -0.3978466147611299,
          -0.3737519665380586,
          0.9014495467722021
        ],
        [
          0.8302222237838743,
          0.11761097724953525,
          -0.3960048885578291,
          -0.6002044470389838,
          0.9784484637479332,
          0.15038292785875296,
          0.6222481290590198
        ],
        [
          -0.7960225556988529,
          0.6718954258464729,
          -0.8795970370297166,
          -0.5302873164666666,
          -0.5169919775237672,
          0.14586078500080513,
          -0.6074181671799006
        ],
        [
          0.8064118390814865,
          0.2921568004833319,
          0.6308092599429656,
          -0.26477754655197616,
          -0.06364371138854086,
          0.3389456676404339,
          -0.45876137257961663
        ]
      ]
    },
    {
      "rows": 2,
      "cols": 7,
      "data": [
        [
          -0.33984640894719137,
          0.6741669243566162
        ],
        [
          -0.31733883365296656,
          -0.8193791753391944
        ],
        [
          0.8882037128998683,
          0.07195092822737248
        ],
        [
          0.7114023915753358,
          -0.43410650296756637
        ],
        [
          -0.6993052943542937,
          0.24626670677686846
        ],
        [
          -0.6575352394487677,
          0.9151815099345675
        ],
        [
          -0.6491507694477461,
          1.091157246606738
        ]
      ]
    }
  ],
  "biases": [
    {
      "rows": 7,
      "cols": 1,
      "data": [
        [
          -0.28351807615679325,
          0.5109908652828148,
          0.9664048334856177,
          0.6238074049717894,
          0.3151010863562127,
          -0.27749131518032755,
          0.8639265295297278
        ]
      ]
    },
    {
      "rows": 2,
      "cols": 1,
      "data": [
        [
          0.3850885725335855,
          -0.3077400386546346
        ]
      ]
    }
  ],
  "len": 3,
  "layers": [
    {
      "rows": 8,
      "cols": 1,
      "data": [
        [
          0.21195833844101591,
          0.2826964764991055,
          0.08632351264555922,
          0.029204506933173946,
          0.010109942687407248,
          0.005962220901273453,
          0.08380871279975789,
          0.10775363214587148
        ]
      ]
    },
    {
      "rows": 7,
      "cols": 1,
      "data": [
        [
          -0.25535190464156177,
          0.7412187203911929,
          0.893216287232394,
          0.6917054211494875,
          0.5995499475202302,
          -0.5993819554356038,
          0.5531839132631762
        ]
      ]
    },
    {
      "rows": 2,
      "cols": 1,
      "data": [
        [
          0.029435780572294568,
          0.3695353350362668
        ]
      ]
    }
  ],
  "wLen": 2,
  "inputs": [
    0.21195833844101591,
    0.2826964764991055,
    0.08632351264555922,
    0.029204506933173946,
    0.010109942687407248,
    0.005962220901273453,
    0.08380871279975789,
    0.10775363214587148
  ]
}
