{
  "sizes": [
    8,
    7,
    2
  ],
  "weights": [
    {
      "rows": 7,
      "cols": 8,
      "data": [
        [
          0.8792820053727013,
          -0.5681448657276125,
          -0.9544460080134529,
          0.48814679528217075,
          0.19990873839519865,
          0.6011352784995783,
          0.5078035930268032
        ],
        [
          0.3185562382685253,
          0.2844491324073241,
          0.33023542325705446,
          0.6656236335382506,
          -0.19737548999231525,
          -0.1550732643350217,
          0.7887350844398411
        ],
        [
          -0.20808790138905175,
          -0.11413279150328944,
          0.3802647505975212,
          -0.4289266495160489,
          -0.10891767946310482,
          0.5598461841516861,
          0.15236845657736842
        ],
        [
          -0.3281906301724707,
          -0.49232113579980474,
          -0.6865637369919317,
          0.917756126725478,
          0.725880142361993,
          -0.9024788152577318,
          -0.011736706249312778
        ],
        [
          -1.2160814489677259,
          -0.6602698641729676,
          0.6471859682776915,
          -0.8390232697252437,
          0.805941150629378,
          -0.8848772814590689,
          -0.36131840258361425
        ],
        [
          0.6816983799542091,
          0.4105598718019565,
          -0.41756464722346603,
          -0.017518270206064557,
          0.008208060022022678,
          -0.9102973297956365,
          0.5009094391614445
        ],
        [
          0.7713328431098876,
          0.7894059944281224,
          0.7519298363464029,
          -0.8481044370886451,
          -0.7709427798305403,
          0.4652154847834706,
          0.13051330192093857
        ],
        [
          -0.007624497263604986,
          -0.5444271181965319,
          -0.5468972290616502,
          -0.12197020024391117,
          -0.028646982950323086,
          -0.6073592655414674,
          -0.44036409092118917
        ]
      ]
    },
    {
      "rows": 2,
      "cols": 7,
      "data": [
        [
          -0.5755598846016158,
          0.6123079214602741
        ],
        [
          -0.3562178328740715,
          0.479284869831506
        ],
        [
          0.29471479568849995,
          0.45175719021152005
        ],
        [
          1.1048782690563874,
          -0.16955995174931332
        ],
        [
          0.42749813518416013,
          0.7230094681010623
        ],
        [
          -0.6822922758081877,
          0.9611559002910888
        ],
        [
          0.6438996823145041,
          0.9717911718693069
        ]
      ]
    }
  ],
  "biases": [
    {
      "rows": 7,
      "cols": 1,
      "data": [
        [
          -0.26878527324279555,
          -0.7753401408311902,
          0.6744477933132255,
          0.7962163329468783,
          -0.4132618243136285,
          0.30493947049807,
          -0.6267966596842778
        ]
      ]
    },
    {
      "rows": 2,
      "cols": 1,
      "data": [
        [
          -0.6725757348576931,
          -0.18295492960147502
        ]
      ]
    }
  ],
  "len": 3,
  "layers": [
    {
      "rows": 8,
      "cols": 1,
      "data": [
        [
          0.03483677453462445,
          0.03927501929448034,
          0.06795990623587858,
          0.003443193098241923,
          0.0058686331804874425,
          0.01362166301291053,
          0.024103935612982536,
          0.032182354974241975
        ]
      ]
    },
    {
      "rows": 7,
      "cols": 1,
      "data": [
        [
          -0.22041836726918107,
          -0.7901878697297167,
          0.676280960558914,
          0.7838438797238046,
          -0.4336153667266338,
          0.3288047535327847,
          -0.5741375953218475
        ]
      ]
    },
    {
      "rows": 2,
      "cols": 1,
      "data": [
        [
          -0.0827028350239799,
          1.6155961703628396
        ]
      ]
    }
  ],
  "wLen": 2,
  "inputs": [
    0.03483677453462445,
    0.03927501929448034,
    0.06795990623587858,
    0.003443193098241923,
    0.0058686331804874425,
    0.01362166301291053,
    0.024103935612982536,
    0.032182354974241975
  ]
}
